digraph Tree {
node [shape=box, style="filled, rounded", color="black", fontname=helvetica] ;
edge [fontname=helvetica] ;
0 [label="PHQ9TT <= -0.225\nfriedman_mse = 0.233\nsamples = 297\nvalue = 0.0", fillcolor="#f2bf9a"] ;
1 [label="PHQ9TT <= -1.251\nfriedman_mse = 0.201\nsamples = 137\nvalue = -0.194", fillcolor="#f3c5a4"] ;
0 -> 1 [labeldistance=2.5, labelangle=45, headlabel="True"] ;
2 [label="STAIYTT <= 0.994\nfriedman_mse = 0.077\nsamples = 33\nvalue = -0.397", fillcolor="#f4ccaf"] ;
1 -> 2 ;
3 [label="AGE <= 0.892\nfriedman_mse = 0.056\nsamples = 32\nvalue = -0.424", fillcolor="#f5cdb0"] ;
2 -> 3 ;
4 [label="friedman_mse = 0.0\nsamples = 21\nvalue = -1.934", fillcolor="#ffffff"] ;
3 -> 4 ;
5 [label="friedman_mse = 0.142\nsamples = 11\nvalue = -1.248", fillcolor="#fae8db"] ;
3 -> 5 ;
6 [label="friedman_mse = -0.0\nsamples = 1\nvalue = 1.871", fillcolor="#e58139"] ;
2 -> 6 ;
7 [label="STAIYTT <= -0.988\nfriedman_mse = 0.223\nsamples = 104\nvalue = -0.129", fillcolor="#f3c3a1"] ;
1 -> 7 ;
8 [label="DAST10TT <= 0.728\nfriedman_mse = 0.106\nsamples = 23\nvalue = -0.358", fillcolor="#f4cbad"] ;
7 -> 8 ;
9 [label="friedman_mse = 0.0\nsamples = 17\nvalue = -1.914", fillcolor="#fffefe"] ;
8 -> 9 ;
10 [label="friedman_mse = 0.25\nsamples = 6\nvalue = -0.079", fillcolor="#f2c29e"] ;
8 -> 10 ;
11 [label="AUDITTT <= -0.088\nfriedman_mse = 0.237\nsamples = 81\nvalue = -0.065", fillcolor="#f2c19e"] ;
7 -> 11 ;
12 [label="friedman_mse = 0.237\nsamples = 45\nvalue = 0.226", fillcolor="#f0b78f"] ;
11 -> 12 ;
13 [label="friedman_mse = 0.196\nsamples = 36\nvalue = -0.863", fillcolor="#f8dcc7"] ;
11 -> 13 ;
14 [label="PHQ9TT <= 0.971\nfriedman_mse = 0.201\nsamples = 160\nvalue = 0.166", fillcolor="#f1b992"] ;
0 -> 14 [labeldistance=2.5, labelangle=-45, headlabel="False"] ;
15 [label="STAIYTT <= 1.277\nfriedman_mse = 0.228\nsamples = 103\nvalue = 0.098", fillcolor="#f1bc95"] ;
14 -> 15 ;
16 [label="AUDITTT <= 1.56\nfriedman_mse = 0.219\nsamples = 94\nvalue = 0.134", fillcolor="#f1bb93"] ;
15 -> 16 ;
17 [label="friedman_mse = 0.231\nsamples = 86\nvalue = 0.426", fillcolor="#efb184"] ;
16 -> 17 ;
18 [label="friedman_mse = 0.0\nsamples = 8\nvalue = 1.756", fillcolor="#e6853f"] ;
16 -> 18 ;
19 [label="friedman_mse = 0.173\nsamples = 9\nvalue = -1.079", fillcolor="#f9e3d2"] ;
15 -> 19 ;
20 [label="CEVQOTT <= 0.015\nfriedman_mse = 0.129\nsamples = 57\nvalue = 0.288", fillcolor="#f0b58b"] ;
14 -> 20 ;
21 [label="SES <= 0.701\nfriedman_mse = 0.182\nsamples = 32\nvalue = 0.198", fillcolor="#f0b890"] ;
20 -> 21 ;
22 [label="friedman_mse = 0.229\nsamples = 21\nvalue = 0.286", fillcolor="#f0b58b"] ;
21 -> 22 ;
23 [label="friedman_mse = 0.0\nsamples = 11\nvalue = 1.792", fillcolor="#e6843d"] ;
21 -> 23 ;
24 [label="PHQ9TT <= 1.313\nfriedman_mse = 0.038\nsamples = 25\nvalue = 0.404", fillcolor="#efb285"] ;
20 -> 24 ;
25 [label="friedman_mse = 0.136\nsamples = 6\nvalue = 1.113", fillcolor="#ea9a60"] ;
24 -> 25 ;
26 [label="friedman_mse = 0.0\nsamples = 19\nvalue = 1.801", fillcolor="#e5833d"] ;
24 -> 26 ;
}