digraph Tree {
node [shape=box, style="filled, rounded", color="black", fontname=helvetica] ;
edge [fontname=helvetica] ;
0 [label="PHQ9TT <= -0.225\nfriedman_mse = 0.245\nsamples = 297\nvalue = 0.0", fillcolor="#f4c8a9"] ;
1 [label="STAIYTT <= -0.705\nfriedman_mse = 0.212\nsamples = 137\nvalue = -0.209", fillcolor="#f5d0b5"] ;
0 -> 1 [labeldistance=2.5, labelangle=45, headlabel="True"] ;
2 [label="friedman_mse = 0.119\nsamples = 50\nvalue = -1.502", fillcolor="#ffffff"] ;
1 -> 2 ;
3 [label="friedman_mse = 0.24\nsamples = 87\nvalue = -0.457", fillcolor="#f7d9c3"] ;
1 -> 3 ;
4 [label="STAIYTT <= -1.271\nfriedman_mse = 0.204\nsamples = 160\nvalue = 0.179", fillcolor="#f2c29e"] ;
0 -> 4 [labeldistance=2.5, labelangle=-45, headlabel="False"] ;
5 [label="friedman_mse = 0.0\nsamples = 10\nvalue = 1.945", fillcolor="#e58139"] ;
4 -> 5 ;
6 [label="friedman_mse = 0.211\nsamples = 150\nvalue = 0.638", fillcolor="#efb184"] ;
4 -> 6 ;
}